[[0.09108271867276709, -0.14036362710098785, -0.10680161487304667, -0.5867349378813506, 0.25277409263491135, -0.2647770229718142, -0.4875584803138102, -0.19517316200005433, -0.6140922430929378, 0.16138538954672105, 0.35600958773420405, -0.6490656342533389, -0.18400877159541443, 0.3210893776373333, -0.002032680004383799, 0.19413672673138216, -0.06771982654679326, 0.174138568980265, -0.4190327058895961, 0.4757631288792869, -0.3959243025165416, 0.02374370619274397, -0.44567322845968604, 0.3467595663732287, -0.2358776347939748, -0.00916618578620496], [-0.03422346767157909, -0.36624335011270287, -0.2800266967255456, -0.0943553524502206, -0.2923492708556538, -0.267363296748853, 0.07173900085683754, -0.125133870909113, -0.16763485772233785, -0.18788885984912368, 0.027347830750595582, 0.0677400139111172, 0.2518290480172329, -0.1273423969211137, -0.14186916121400417, -0.11219637428603554, 0.0921440573877779, -0.13802767720455236, -0.470857749500797, -0.001048278132378953, -0.1166856488460343, -0.2992167652288512, 0.027868219147243294, 0.2127856490564977, -0.35809871475487215, 0.018336896672339575], [-0.048827737112907985, 0.12201932335085405, 0.06770870242518581, -0.3089492007376667, -0.056823756260312025, -0.5451602765466674, 0.547520125734155, 0.20091707204645076, 0.12956524983437748, -0.21604376835171146, -0.09732021869764679, 0.04283393590998878, -0.5715634285351245, -0.3603393592597908, -0.479928653380622, -0.35153155859290963, 0.6343356134565197, -0.26215258851793277, 0.09391324827029775, 0.009183450014076274, 0.015936214813209264, -0.3153900274739619, 0.4392565754048326, 0.3963065899586955, 0.16021817582960565, 0.21489585596975327], [-0.3891998130399368, 0.28479730813212656, 0.3905077342355244, 0.10352376755646123, 0.3783594561705664, -0.22260287033688797, -0.3562752334239362, -0.05808924981565178, 0.3762426081589152, -0.36177045000044666, -0.040903075709131764, -0.597993433175375, 0.03962482053491016, 0.28374928949290346, -0.04124527934992195, 0.23244253992773173, -0.23058576185556515, 0.10502433672853274, 0.27950597159426144, -0.16799517267564043, 0.15161852868672454, 0.22764359965089445, 0.4343843719593595, 0.4043359203390132, 0.07308776290996483, -0.669932278533645], [-0.09568688976350509, 0.2686882095101139, -0.2755286657605858, 0.06223868248375987, -0.2804760772785336, 0.9496180212211864, 0.33265837985634494, 0.1295842651839875, -0.028927455520315254, 0.19051052066946458, -0.10975140516873562, 0.6976718475807765, -0.047087924989024185, -0.272727037946445, 0.26983925282171706, -0.14925078406001058, -0.6550536259396792, 0.18422803672040589, 0.6764926839964223, -0.7334202190593575, 0.07172961038297619, 0.17019718030046718, -0.9059841549567323, -1.2230907942417983, 0.2938841304347662, 0.67752583192093], [-0.7713966663464278, 0.28647517614622253, -0.07733323792881419, 0.01509810880671391, -0.05665278418779407, -0.30657623721610194, -0.5214702472272007, -0.3968636578807819, 0.062126929181372754, 0.12070530973580917, 0.5770883781050223, -0.08877284042717026, 0.4831893734721688, 0.4798674110903654, -1.4117123633586417, 0.41518609932770817, -0.24818190010495964, -0.011551567624223838, -0.4467191949344444, -0.21601020517670064, -0.1253597679621617, 0.48881519314840344, 0.6571116763349645, 0.07606908782471225, -0.4979486930349421, 0.4325791535054284], [-0.6095740222759642, -0.6926130529873596, -0.6770437742617809, -0.30833221853924664, 0.7846628151605087, -0.2740835430486342, -0.12897300495115022, -0.2727278096404012, 0.5844153961719487, -0.1658261025835429, -0.17174298127036466, -0.1883749232012339, 0.06775854087599627, 0.5304555693664014, -0.4680211748171771, 0.09314401618965107, 0.5647496458911976, 0.3624263813252272, 0.5837573057352987, 0.3252280542111307, -1.1781574018098262, -0.6882673112417426, -0.15588342039205197, -0.44614557079460887, -0.037775297556471896, -0.04470827283873938], [0.22248481178827326, -0.4296401112268514, 0.06538795170118025, -0.5206445943815042, 0.10287097734769288, -0.5498761946442311, 0.9092313201141696, 0.04424760904195468, -1.500208424451861, 0.29420858610103146, -0.3744850987090658, -0.9724548875831592, -0.30459484887232846, 0.4770021236239592, 0.5980238067218099, -0.5922794554037176, 0.3825598195793137, 0.009062242265374311, -0.4719431365387709, -1.0286050933635627, 0.08379239728458675, 1.192171572089795, -0.73748282745265, -0.9475283671287774, -0.3667760285654983, 0.10041193076737864], [0.3858674622192973, -0.5013699657980144, -0.13678402887471314, -0.23771935584357637, -1.1453263877318727, 1.129995254058239, -0.6441990358890376, -0.7406252801689155, 1.1164164529224019, 1.0848485046315857, -0.49475402255864387, -0.19189126921051705, 0.7962189657823695, 0.008092236907935979, 0.7675900151650061, -0.11921074120414281, -0.0013411883509117347, -0.6225004872354799, -0.09303377594116506, -0.6980597579084026, 0.13683401602941797, -0.29450185581921945, -0.1046679664815123, -0.06414411113639785, -0.7334926741570065, -0.48186615612934197], [0.156113416782261, -0.43973329309753156, -0.39689984825921915, 0.280463673530423, 0.06188709713232242, 0.3089910838991493, 0.4380455657622221, 1.1196377526704064, 0.05125273840005258, 0.17369125030417779, 0.5402653471881755, -0.5651281628576887, 0.05521295662805226, 0.45696541898015985, -0.5467613079992018, 0.1427310269018603, -0.1539085421245406, -0.7184634874374504, -0.4270954379717341, 0.23628215302898362, 0.16268015955095455, -0.23975783069451098, -1.1944182815110984, -0.7042399653517007, 0.38204602788420156, -0.3299543808096225], [0.9976966790717671, 1.0027618537858318, 0.5551114454862349, 0.32007431557169747, -1.0640432059144385, -0.17970112348222883, -0.7703928794700091, 0.14700410006462183, 0.26422587293720345, 0.2928259619700635, -0.3920121790194318, -0.577196287690125, -0.5440188787824689, 0.20564373181603432, 0.15702629404677218, -0.550752168562778, -0.35998802432352117, 0.9279816662226114, -0.014342902156542332, 0.5925067482240552, 0.03634566349129705, -0.09315812949787525, -0.5558209683503698, 0.1298742826957143, 0.3260178973315886, 0.413988059353486], [0.1513192664619899, -0.2801380170030829, 1.1482282310521792, -1.266617455497339, 0.21864339745066183, -0.3792922565532738, -0.8698036797716362, 0.42149709793009454, -0.5116680753871722, -0.3507694049559451, -0.865815717288584, 0.15398994271085292, 0.6044589754791663, -0.04353521116936934, 0.4838571000877645, -0.6466919008132054, 0.723484378882239, -0.6502367237983522, 0.35223703200837814, -0.44457558906577266, -0.3595550266405852, -0.4544392676999167, 0.12400606308080897, 0.4949581501240112, -0.3969134116060345, 0.19124759388784918], [-0.026351109034708442, -0.8284747742378756, -0.28244476526431905, -0.534836845278582, -0.005324892681862138, 0.03916814135808519, -0.5668933618119731, 0.18512890925815637, -0.7526390630342227, 0.1614042728103477, 0.021184057776458726, 0.7941510839856202, -1.4172381914721812, -1.9494565504510715, -1.2671130290623658, -0.2833143874828946, 0.8701230478143518, 0.4564860542132315, 0.5209227389327, 0.5908015240424208, -1.5503482484292874, 0.5780999722292209, -0.9654918476023802, 0.22329002234360323, 0.11431433898280173, 1.0090014914849201], [0.10913280818546978, 0.7740592594323421, 0.4266158972001654, 0.4784953202539411, -0.7045167892449388, -0.15763126716317244, 0.14920764045681312, -0.17724287490123947, 0.06118149970854578, -0.5892491004965851, 0.47790351681758775, -0.18215060043751963, -0.11431839034869758, 0.17970711447539395, -0.09679523985038833, 0.005127394081118889, -0.5912183794343652, 0.598811556761779, -0.13169131921840077, 0.3975948819697273, -0.3206500171759545, -0.40001389613087046, -0.06843522892562912, 0.2225855745939711, 0.023164939131238797, -0.17155108869749294], [-0.3255858712585916, 0.9055985699142984, 1.0364947512613807, 0.41194535570167934, 0.5909972901968186, 1.3952797385713351, 0.5733396646253006, 0.23407568967782896, 0.442190733628516, -0.9020178680027139, 0.30105834814988225, 0.3957093451357698, 0.7299562864884833, -0.4686352917658347, -0.22216788612611243, 0.39091178137386773, -0.7133487152216027, -0.8679278786732836, -1.1014808259284248, -0.6647680923038894, 0.6506101666069448, -0.634403859085026, -0.008322998811814085, -1.4236238908837142, 0.09819542004883505, -0.8808237861734386], [-0.7273822861757219, -0.44769587769222774, 0.49371856204901443, 0.7491350313576918, 0.4918271140302316, -0.2649575845959821, -0.05659741684615049, 0.2403218995213544, -0.11531369016602822, -0.371615865784531, -0.9390646696705275, -0.03813969888881044, -0.6435168540972663, -0.6145374955101113, 0.6358583716059979, -0.01687016162717624, -0.16467051851708733, 0.0949533258965501, 0.6410872151701931, -0.41834231066518557, 0.4910717770817864, -0.2285126702872956, -0.47851879479349874, -0.04447182571940845, -0.31994445771658375, -0.11553949618635334]]
[[-0.46126335139550184, -0.8374014944070307, -0.3369607598547695, -0.7192503554016887, 0.8276986735126677, -0.9840239796658293, 0.6093813793976692, -0.6788039591149108, -0.12767626512230082, -0.28650333989853494, 0.13252843711382775, 0.40644162234906633, 1.3146271200980306], [0.8356752007979015, 1.4363293573333338, -0.11750072506564656, 1.8411980795935508, 0.45480385333522466, -0.748016692441464, 1.4842346368580857, 1.0662625068224318, -0.9604026591549256, 0.8916840896805791, 1.0685692948715522, 0.5527091133322866, -0.1650552300590098], [-0.5028701073345577, 0.8870461485304324, 0.06611743217491121, -0.07082848035809662, -0.07517138452372518, -1.2416689299629262, 0.7568166551448813, -2.070180827551619, 0.18608325061787198, 0.01694058592259631, -0.17651697571377606, -0.011055843639954899, -0.18985327749923775], [0.32448792670276755, -0.855745524599322, -1.7130180899169714, 0.8364366202445208, -0.7663246690575949, -0.6610339530751547, -0.03255396340445079, 0.17899008285408183, -0.8377890185286203, 0.3347583586380283, -1.2877535370450026, 0.1273311407737023, 1.0790148506698447], [-0.9918204248940496, -0.6236393325757646, -0.146900052311938, 0.048958271049730905, -0.7489171096387507, -1.5467265086255468, 1.8836861795312694, -0.30564212937579455, -0.23505413750746776, 0.060501806943819805, 0.9247439629042771, -0.9854164207120452, -0.6808668591744593], [-0.6941645848505119, -1.4533000491592254, -1.6321918788441814, 0.549799630513357, 0.5515957941646403, 0.17121443443277387, 0.1437897693016345, -0.44009466378724155, -0.678168922923883, -1.7885888453259084, 0.21010861106248152, 0.9651416355137588, 1.0878252947767546], [0.23494932338068128, -0.7670570492365135, -0.30970580732070424, 1.0096761185748793, -1.4224972797454825, 0.8876698334438403, -0.27285548293773004, 1.3660895122770242, 0.42977441362138835, 0.20886165267509849, 0.1253267345740133, -1.1148781398043175, -0.2327464967480252], [-0.5152541185966997, 0.057905601917800774, 0.7253499545203642, 0.2599023929752949, -1.8333750376220992, -0.6261348556688493, -1.131297305213538, -0.6686777658555727, 0.8300551320603762, 0.27572633929965623, 0.7996562916681486, 0.007344246493525449, -0.32934352929552285], [0.408831840213857, -1.2217056645142335, -0.677128131922331, -0.4100955310495816, -0.3162157889895785, 1.213903940167174, 1.5155862320755993, -0.3123035519088835, -0.24908256271707646, 0.421667599974337, 0.6381655271924406, -0.5863979146609767, -0.12381220703562676], [-1.326923224164713, -0.8746160020090303, 0.4450033019742229, -0.2699318545961153, 0.7284832104138103, 0.4023630995960348, -0.650313499242462, -0.6496966982715723, 0.3225467778842184, -0.26600572353176605, 0.892571250767831, 0.4635272684491255, -0.5897432502582921], [0.9266641110182623, -0.727770028834048, 0.09132460253963867, 0.9311487678993989, 0.6434778557630387, 0.6770975261802897, -0.8102053145324076, -0.3153644006580301, 0.861056231258207, 0.4766609458064853, -0.13336758072715862, 0.3145023119744622, -0.8163746699995408], [-0.0800104835715358, 0.050603349681408984, 0.3989572712725608, 0.3527318772047713, 0.8938536604252045, 1.7128719042614486, 1.2632225353008504, -0.4699766647530104, 1.0086250963678627, -1.6664303461850496, -0.03219293838821995, -0.5254539351063756, 0.7023926370268633], [-1.3146262219868674, 0.10203705855561154, 1.2787712844755523, 0.3535524151687165, -0.8900006576743171, 0.9667288949434971, 0.22365500094544813, -0.012851182032416685, -0.2126291311729097, 0.45268588722311826, 1.6775305077466263, 1.1170121229315497, 0.8213569032485669], [0.6371677625801878, -0.6004613037922887, 0.3560999509597973, 0.0004952429604761861, -1.3532078706489812, 0.17506343190294663, -0.9395718719988695, -0.6201030717315049, -1.5638347959313175, 1.9837704595730228, 0.31866451309666033, 0.02428095696751255, -0.2870583586522969], [0.5407760986341119, -0.45911327193593693, -0.6801920278842603, -0.4031897931139018, -1.1500328317125628, 0.7967309687335851, -0.5301517639698221, 0.18454221840733254, 0.9091267063686755, 0.5806578554544243, -1.7411378662454229, -0.30703622312950263, 2.0772731263739903], [-0.16426339248726307, -0.9413289629797126, -0.27822748103185013, -0.07123504677777656, -0.16312282162716002, 0.1510123862429135, 0.2455242417344207, -0.2862864229714923, -0.03685756110885311, 0.23586235992160362, -0.5408286804417215, -0.022546200874770567, -1.0890036133228087], [0.928494393743937, -0.9600834830383385, 0.4763255425024359, -1.0658885836051333, 0.5426967924451601, -0.1972041413093301, -0.06163867689330651, 0.021751161397632758, 0.6424745354188758, -0.05560939449548153, -1.273222376955754, -0.6046973723590733, -1.6927401665404336], [0.7119021652693222, 0.49109399488273164, -0.7162287663285802, -0.23425359594520478, 1.0968259185166656, 0.5190311407977745, -0.006408215070755577, 0.26594625825711443, 0.898779671555739, 1.8054631822781837, -0.9929765030658815, 1.1761492566894771, -0.2778267390350127], [0.4968921195082912, 0.13991569246755933, -0.03215365584947, -1.0785005639164997, 0.43978279350966226, 0.848396498504569, 0.028038112177542162, 0.08026247197088317, 0.5793154119384138, 0.1633285449766305, -1.0698611908081406, 0.22283621591614494, -0.325186098439781], [1.5375431602782987, 1.7905322265800498, 0.12023783131238053, -0.8609729991128753, 2.072111848360054, -0.40786994963577045, 0.2462974833661847, -0.5852047790825141, 0.29782139082624626, -0.9568299325869928, 1.3892452278177108, -0.8527339655703892, -0.45552985771657095], [-0.5930577543250807, 0.3521429181081466, -0.06171965040493097, 0.04924581636640279, -0.10306424435045104, 0.23421272496733833, 0.08176046723190793, 1.1099736532922524, 0.13580379440616458, -0.42423172782151897, 0.5416571951863253, -0.8229892694390006, 0.24433114092801617], [0.5500670693342538, 0.2513450503153887, -0.16841019118576153, -0.46263439014626245, 0.11287790267326273, -0.1854106101673052, -0.08547233062691842, 1.2978836063011128, -0.38539112192339464, -1.1217239204090008, -0.342380444891818, 1.3460866660052184, -0.6154257236976531], [-0.27656159287504023, 1.036705588230921, 0.7743205129059207, 0.0024918649044864895, 1.28210250935612, -0.7434265464837685, -1.180046548310549, -0.006223581587711717, 0.053385610994084405, 0.3686610579360256, 1.3680444082462204, -1.0494283998535325, -0.8879749248952225], [-0.731025660748325, -0.5215458665202831, -0.6938880660746745, -0.6834987600823833, 0.31797535496456675, -0.6137557130459941, -1.4622270622057565, -0.8644061215434949, 0.6699134583505244, -0.2490107441026189, 1.3180618230627281, -0.5070994956234531, 0.3729077380184702], [0.31419707398290814, 0.41358231432853926, 0.24496775747894886, 0.7673667159543194, -0.7399598738384949, -0.9955227307381467, 0.517955429779598, 0.04669144330310788, 0.6381074754894165, -0.9157848644423329, 0.21983684211597979, -0.4949503471198271, -0.2461584340532788], [-1.5214967942724755, 0.2908253585494773, 1.6065595050084818, -0.2822153841341532, 0.47989021029584195, 0.3025723049049971, -0.9951422277367977, -1.648055786401447, 1.1789414862195096, -0.1570885216808543, -1.3821186551073752, 0.4741763483560634, 0.01606485697112056]]
[[-1.0046293627624174, -0.7596594142434296, -2.254939228898058, -0.622795104591111, -1.9428971137921214, 2.5000591350733368, -1.2903097324120405, 0.6500268477083853, -1.4761138444811357, -0.8831206774270567, -1.7929934134712628, -0.6175970545589509, -0.6558918569828749, 1.6573340418230216, 0.2734541655638432, 1.355688364026993, -2.9173278425772557, -1.555460516743138, -1.2820417660759795, 0.5346809153194886, -2.2386634972734574, 2.8195769140611255, 1.5260317872176732, -0.9238767346391893, 2.978672392708471, -1.1934306872570732], [-0.07376404082967537, -0.7507342502727681, -1.5296337069767934, -3.070963404484094, -2.1679240016082977, -1.1461074376851765, 1.2534596464980199, -0.3627672619128979, 1.0395489915205576, -1.4464923745290013, -1.5384177911429455, 0.4258325877156083, -2.4227792300916007, -2.2167583454127064, -1.204281229619624, 1.4387564361608398, 2.25196859882988, -1.7968367137131611, 0.8880422538163607, -0.7877452187647136, -1.985535541043833, -0.20793598442748443, 1.8938296478513321, -0.1090881696261928, 0.03455020664404641, -1.6118901858310515], [1.479190076801774, -2.3331883172486987, 0.32637584300759825, -4.832504644772302, 1.5692092726088311, -1.430693306559107, 0.8362645167416985, -0.0669435575077679, -1.8660543387472155, 2.065672646471613, -3.736815073832128, 1.0578536657550766, 3.5199759601463105, -0.2767714815723881, -0.7751694127913514, -1.0595880774978685, -0.45587644160199536, 0.43799447934246344, -1.9096916077872745, -0.619324458005061, -2.122786171708851, -3.3756729185863645, 0.42931257277817203, -3.0257681280256756, 0.49232514088437684, 0.28858764296805106], [-0.07706339327110963, 1.1344869158820647, 0.7055967569301536, 0.7893631894256053, -1.4206481584433803, 0.2669924659379208, -1.6489794380324463, -1.7115298512674046, -0.049211516117647514, -1.6944912476445753, -0.2750537750392639, -0.029551586751784976, -0.0642407745818789, -0.9790710737143644, -0.7195383186209047, 1.962998368428363, -0.2943474762707011, -1.8246924247912801, 0.35369013231057955, 0.18603805568310475, -0.7598122950684049, -0.4244138230437921, -1.2830591847564001, -0.22755120744978535, 0.34942916960672726, 1.53306819607681], [-0.7359920728650204, -1.5692600663240128, -3.0063190837864977, 0.3670187285356044, -1.4582384715700132, -1.7074270809310128, -0.6221245780245521, -1.7359793856379855, -0.03641735480217354, -1.2893928582955163, 0.1560675362668266, -0.33816142753551054, 0.3883865564323046, 1.5947775659744186, -1.0418728835645321, -1.5942352289874275, -0.03194203577651862, 0.4873165813433332, -2.493522281022307, 1.3255227891253771, 1.6416893135534614, 0.9717228793346006, -1.1786279963871835, 2.271581317376362, 2.362536908813166, -1.3002640203336722], [0.7121336958513887, 0.5638859492160891, -0.44508410818878963, 1.4878094541247395, 0.2178192796134939, -0.09516801396100018, -3.782217157768042, -0.6445742933679087, -0.35513805507462687, 0.5812380224977559, -0.4393957092782265, 0.30750804921058816, 0.10967506285222456, -0.5858817188738281, -3.5674107948691804, -0.12572758280924395, -1.8622955448438239, -0.3112258340241299, -0.2507318570367969, 2.591296210513981, -0.7186089672509862, -2.243699829537944, 0.10159176211825843, 0.18939608414894346, -2.781455829276559, 0.9061254126597458], [0.05512668964832043, 1.0619469719061196, -1.3883912944563161, -1.9918793980295741, 3.198162476586195, 0.7160028167573413, -0.8122379984182899, -1.387789038147274, -2.457138631534604, -1.916103722431722, 0.5654925595064084, -1.5635223906205644, -0.5817697849314744, -1.7055012072541944, -1.9128175744220308, -0.3837504095916504, 0.2625749971547193, 1.8946977227767845, 1.348927040364854, -1.32641986003367, -2.252674950303114, -0.5426197402480089, -0.9733801291668792, -0.4325243142466448, 0.4984268142604868, 2.0071732813324834], [0.39894495424724646, 1.055811637143836, -0.5587826585630646, 0.7247676435400169, -2.273702230277085, -2.6397088363625776, -0.5557115925809148, 1.3240000702644186, 1.7831966367961232, -0.7013112971089394, -2.3200406115715957, 1.1176966336529914, -0.8656070257968108, 1.135068067267606, -0.5414099235153683, 1.2842745240209534, 0.3013877965575005, 1.5389601768141385, 1.1607655076576593, -3.208576866165624, -1.0319888526444607, -0.4729473954228897, -0.25550017745481646, -2.0208424677319887, 0.2212546587939188, -0.8087444255867817], [2.0495070066098364, -1.521818576512855, 0.9007694096073775, -1.8935774498832763, -1.9027412419795073, -0.301506685576463, -1.3597792227052248, 0.9698248933017258, -1.50230983062951, -0.816132964416165, 1.5583619818507275, 0.8495184890026992, 0.9363231726072405, 1.9737099119726935, -1.6144584392341936, 1.9657358312481894, -1.0147251870103122, -0.9597546806655233, -0.6291242164323086, -0.8690250131196153, 0.3656798733313482, 0.9676482604462603, 0.9646170316733238, -2.702477854881723, -1.4438494796087817, -2.0008779982285367], [-1.652632354281655, -1.1302592234246722, 1.714002894028316, -2.5684301847042152, 0.20353577844909881, -0.5360584365883524, -1.3854767531595282, 1.1558787847695022, 1.8767451313551218, 1.4462824200832654, -2.1914054130448255, -1.4248475759741668, 0.5242155001618712, -1.0482181332134881, -1.811626292664403, 0.44330639131416383, 1.456527914486529, -1.368126595235146, 1.0073020189986124, 1.1867586477585559, 0.8421297037050083, 2.0951637577491304, -1.885134012941396, -2.3342863873887683, -0.2954130419788936, -1.107361003940562], [1.7920751316517138, -1.6824689789360558, -1.6985550905475562, -0.5489492730429705, -0.7020416011138756, -1.2924406274710702, -2.2114646173687382, -1.0023662520929495, 1.2204351456294855, 0.6696380144571268, -0.725359421826456, 1.1301663908190231, -0.7848565453568577, -1.9744180531551259, -3.6686840817773887, -1.5820224245800791, -1.8577802014744875, -2.64450147936858, 2.405281505889307, 0.8267179779496489, -0.6573555228361362, -1.497683805458218, -1.8463276409295712, 0.8361134607324893, 1.6432546437491051, 2.7122995345043384], [-1.4490295467886904, -0.07384370416667754, 0.9725691609686262, 0.9950496361038447, 0.016187234496936327, -0.33663102752126556, -1.436226237326431, -0.09639223298153042, -2.0197001120554052, -0.04971531975445212, -1.4350039495776856, -0.4972228133123636, 0.5606075663236827, -0.7771426295030288, 0.4374289510076995, -0.6043048980079195, 0.9562809960967518, -1.242888919779492, -1.0843662795470825, 1.6934826955905042, 2.226642472010739, -0.49081535870304355, 1.005807766421277, -1.7726621590130986, 0.44196017638790325, 0.8075329336238027], [-2.848652884570018, 1.9793310525291787, 0.9165950195465469, 0.5615170742665418, 2.857007726215743, -0.11985084866983581, 1.8403718374061706, -0.7889125637626307, 1.5595300221919006, -2.123541842675865, -0.08837570202640814, 3.2864275243057426, -0.6516797339107098, -3.701617503962073, -0.9218670995266584, 0.177993147403017, -1.6997883644174596, -0.9240217065063672, 2.119074300329375, -0.5214056666974198, 0.04912200940911158, -0.5817859318175453, -2.233808953382567, -0.29219832636802484, 0.5033983709259201, -2.504443210794395]]
[[0.004429107161624079, -0.19382437050253704, -0.9639247531625721, -0.04058836987181099, -0.026197237304508406, -0.2410641730438521, 0.24962167376939423, -0.7152596778358985, -0.21237079010650028, 0.07699061900847474, 0.1332780131086644, 0.6697431200147305, -0.3694844860954969, -0.5271551521512495, 0.10230309721838253, 0.031553255881911824, -0.3548881532069482, -0.28801620525588667, 0.10864128009530245, -0.09777749273783903, 0.7243112476118845, 0.5754476442455303, 1.0112871870519151, 0.45372289031718127, 0.2162592223077983, -0.5463573671825018], [-0.30969464822996146, -0.3469052384919172, -0.08685317024969905, 0.19268706100679683, -0.2744134722383523, -0.6514684151039335, -0.4272996732857322, 0.24833279450023418, -1.1111397841910655, -0.41607467484638816, -1.1019598978895486, 0.2254848034225783, 0.39189079269070554], [-3.0902505423308253, -4.414621864554823, -2.119320127708314, -2.023571609646761, -4.556505094007168, -0.719570898722878, -0.565395296878599, -2.0668917028743237, -3.1182952984016348, -1.601704359925778, -0.6497277040348793, -4.606549062385807, -4.437772476377221, -3.4880168082117518, 1.3354127429421063, -4.195524933830724, -1.981483863487708, -1.1928591017297612, -5.849408900985025, -5.133014179453891, -2.8983471883503156, -4.891904851875953, -2.7246265530538816, -0.6196837760538149, -5.593838489975465, -4.62131159322782]]